<?xml version="1.0"?>
<!-- DTD for the XMLBIF 0.3 format -->
<!DOCTYPE BIF [
	<!ELEMENT BIF ( NETWORK )*>
	      <!ATTLIST BIF VERSION CDATA #REQUIRED>
	<!ELEMENT NETWORK ( NAME, ( PROPERTY | VARIABLE | DEFINITION )* )>
	<!ELEMENT NAME (#PCDATA)>
	<!ELEMENT VARIABLE ( NAME, ( OUTCOME |  PROPERTY )* ) >
	      <!ATTLIST VARIABLE TYPE (nature|decision|utility) "nature">
	<!ELEMENT OUTCOME (#PCDATA)>
	<!ELEMENT DEFINITION ( FOR | GIVEN | TABLE | PROPERTY )* >
	<!ELEMENT FOR (#PCDATA)>
	<!ELEMENT GIVEN (#PCDATA)>
	<!ELEMENT TABLE (#PCDATA)>
	<!ELEMENT PROPERTY (#PCDATA)>
]>


<BIF VERSION="0.3">
<NETWORK>
<NAME>werewolf_divine</NAME>
<VARIABLE TYPE="nature">
	<NAME>day</NAME>
	<OUTCOME>1</OUTCOME>
	<OUTCOME>2</OUTCOME>
	<OUTCOME>3</OUTCOME>
	<OUTCOME>4</OUTCOME>
	<OUTCOME>after</OUTCOME>
	<PROPERTY>position = (0,96)</PROPERTY>
</VARIABLE>
<VARIABLE TYPE="nature">
	<NAME>species</NAME>
	<OUTCOME>werewolf</OUTCOME>
	<OUTCOME>human</OUTCOME>
	<PROPERTY>position = (69,96)</PROPERTY>
</VARIABLE>
<VARIABLE TYPE="nature">
	<NAME>seer_role</NAME>
	<OUTCOME>seer</OUTCOME>
	<OUTCOME>werewolf</OUTCOME>
	<OUTCOME>possessed</OUTCOME>
	<OUTCOME>other</OUTCOME>
	<PROPERTY>position = (138,96)</PROPERTY>
</VARIABLE>
<VARIABLE TYPE="nature">
	<NAME>correct</NAME>
	<OUTCOME>yes</OUTCOME>
	<OUTCOME>no</OUTCOME>
	<PROPERTY>position = (69,0)</PROPERTY>
</VARIABLE>
<DEFINITION>
<FOR>day</FOR>
	<GIVEN>correct</GIVEN>
<TABLE>
0.5076923076923077 0.2923076923076923 0.16923076923076924 0.015384615384615385 0.015384615384615385 
0.42857142857142855 0.3333333333333333 0.14285714285714285 0.047619047619047616 0.047619047619047616 
</TABLE>
</DEFINITION>
<DEFINITION>
<FOR>species</FOR>
	<GIVEN>correct</GIVEN>
<TABLE>
0.20967741935483872 0.7903225806451613 
0.5 0.5 
</TABLE>
</DEFINITION>
<DEFINITION>
<FOR>seer_role</FOR>
	<GIVEN>correct</GIVEN>
<TABLE>
0.640625 0.046875 0.296875 0.015625 
0.05 0.15 0.75 0.05 
</TABLE>
</DEFINITION>
<DEFINITION>
<FOR>correct</FOR>
<TABLE>
0.782051282051282 0.21794871794871795 
</TABLE>
</DEFINITION>
</NETWORK>
</BIF>
